<?xml version="1.0"?>
<opencv_storage>
<cascade>
  <stageType>BOOST</stageType>
  <featureType>HAAR</featureType>
  <height>24</height>
  <width>24</width>
  <stageParams>
    <boostType>GAB</boostType>
    <minHitRate>9.9500000476837158e-01</minHitRate>
    <maxFalseAlarm>5.0000000000000000e-01</maxFalseAlarm>
    <weightTrimRate>9.4999998807907104e-01</weightTrimRate>
    <maxDepth>1</maxDepth>
    <maxWeakCount>100</maxWeakCount></stageParams>
  <featureParams>
    <maxCatCount>0</maxCatCount>
    <featSize>1</featSize>
    <mode>BASIC</mode></featureParams>
  <stageNum>7</stageNum>
  <stages>
    <!-- stage 0 -->
    <_>
      <maxWeakCount>3</maxWeakCount>
      <stageThreshold>-6.8827831745147705e-01</stageThreshold>
      <weakClassifiers>
        <_>
          <internalNodes>
            0 -1 11 2.9265016317367554e-02</internalNodes>
          <leafValues>
            -6.7379677295684814e-01 6.5676569938659668e-01</leafValues></_>
        <_>
          <internalNodes>
            0 -1 15 -4.6846285462379456e-02</internalNodes>
          <leafValues>
            6.7300796508789063e-01 -6.8444943428039551e-01</leafValues></_>
        <_>
          <internalNodes>
            0 -1 10 9.6926363767124712e-05</internalNodes>
          <leafValues>
            -6.3225251436233521e-01 6.6996794939041138e-01</leafValues></_></weakClassifiers></_>
    <!-- stage 1 -->
    <_>
      <maxWeakCount>5</maxWeakCount>
      <stageThreshold>-3.8526690006256104e-01</stageThreshold>
      <weakClassifiers>
        <_>
          <internalNodes>
            0 -1 0 2.6820018887519836e-02</internalNodes>
          <leafValues>
            -7.2297298908233643e-01 4.2257216572761536e-01</leafValues></_>
        <_>
          <internalNodes>
            0 -1 21 -2.0248930901288986e-02</internalNodes>
          <leafValues>
            6.4400589466094971e-01 -4.7806459665298462e-01</leafValues></_>
        <_>
          <internalNodes>
            0 -1 30 1.6528036445379257e-02</internalNodes>
          <leafValues>
            -3.6170029640197754e-01 8.7838262319564819e-01</leafValues></_>
        <_>
          <internalNodes>
            0 -1 36 1.5418515540659428e-03</internalNodes>
          <leafValues>
            -3.6105787754058838e-01 8.3095932006835938e-01</leafValues></_>
        <_>
          <internalNodes>
            0 -1 12 -1.3421563431620598e-02</internalNodes>
          <leafValues>
            4.6775078773498535e-01 -7.2908675670623779e-01</leafValues></_></weakClassifiers></_>
    <!-- stage 2 -->
    <_>
      <maxWeakCount>5</maxWeakCount>
      <stageThreshold>-6.7295467853546143e-01</stageThreshold>
      <weakClassifiers>
        <_>
          <internalNodes>
            0 -1 39 -9.5325941219925880e-04</internalNodes>
          <leafValues>
            4.7222220897674561e-01 -7.0347005128860474e-01</leafValues></_>
        <_>
          <internalNodes>
            0 -1 22 -6.6671080887317657e-02</internalNodes>
          <leafValues>
            4.0388929843902588e-01 -7.3947417736053467e-01</leafValues></_>
        <_>
          <internalNodes>
            0 -1 8 3.1285583972930908e-02</internalNodes>
          <leafValues>
            -4.8330035805702209e-01 5.9635394811630249e-01</leafValues></_>
        <_>
          <internalNodes>
            0 -1 24 -4.3450586963444948e-04</internalNodes>
          <leafValues>
            4.5693704485893250e-01 -5.7926881313323975e-01</leafValues></_>
        <_>
          <internalNodes>
            0 -1 28 1.3704491779208183e-02</internalNodes>
          <leafValues>
            -3.4701064229011536e-01 7.5235790014266968e-01</leafValues></_></weakClassifiers></_>
    <!-- stage 3 -->
    <_>
      <maxWeakCount>5</maxWeakCount>
      <stageThreshold>-7.9524517059326172e-01</stageThreshold>
      <weakClassifiers>
        <_>
          <internalNodes>
            0 -1 20 -1.2046052142977715e-04</internalNodes>
          <leafValues>
            4.1111111640930176e-01 -6.3406938314437866e-01</leafValues></_>
        <_>
          <internalNodes>
            0 -1 4 -1.5219673514366150e-03</internalNodes>
          <leafValues>
            4.3671119213104248e-01 -5.8371669054031372e-01</leafValues></_>
        <_>
          <internalNodes>
            0 -1 38 1.9836370483972132e-04</internalNodes>
          <leafValues>
            -5.2594488859176636e-01 5.0709444284439087e-01</leafValues></_>
        <_>
          <internalNodes>
            0 -1 3 -1.5120132267475128e-01</internalNodes>
          <leafValues>
            4.4761103391647339e-01 -4.9269831180572510e-01</leafValues></_>
        <_>
          <internalNodes>
            0 -1 32 1.1651481036096811e-03</internalNodes>
          <leafValues>
            -5.1955312490463257e-01 4.6004816889762878e-01</leafValues></_></weakClassifiers></_>
    <!-- stage 4 -->
    <_>
      <maxWeakCount>7</maxWeakCount>
      <stageThreshold>-1.0006375312805176e+00</stageThreshold>
      <weakClassifiers>
        <_>
          <internalNodes>
            0 -1 25 2.4812873452901840e-02</internalNodes>
          <leafValues>
            -5.4423594474792480e-01 4.9342104792594910e-01</leafValues></_>
        <_>
          <internalNodes>
            0 -1 27 -1.1817415244877338e-02</internalNodes>
          <leafValues>
            7.0227986574172974e-01 -3.0931597948074341e-01</leafValues></_>
        <_>
          <internalNodes>
            0 -1 19 -1.3064112863503397e-04</internalNodes>
          <leafValues>
            3.3348155021667480e-01 -6.7807239294052124e-01</leafValues></_>
        <_>
          <internalNodes>
            0 -1 23 2.1228054538369179e-03</internalNodes>
          <leafValues>
            1.8491958081722260e-01 -9.0376549959182739e-01</leafValues></_>
        <_>
          <internalNodes>
            0 -1 37 -4.9433321692049503e-04</internalNodes>
          <leafValues>
            4.0146085619926453e-01 -4.5005437731742859e-01</leafValues></_>
        <_>
          <internalNodes>
            0 -1 35 -2.6972001069225371e-04</internalNodes>
          <leafValues>
            5.5978322029113770e-01 -3.4122902154922485e-01</leafValues></_>
        <_>
          <internalNodes>
            0 -1 18 2.2057611495256424e-03</internalNodes>
          <leafValues>
            2.8583538532257080e-01 -6.9917827844619751e-01</leafValues></_></weakClassifiers></_>
    <!-- stage 5 -->
    <_>
      <maxWeakCount>8</maxWeakCount>
      <stageThreshold>-9.1945827007293701e-01</stageThreshold>
      <weakClassifiers>
        <_>
          <internalNodes>
            0 -1 34 -1.4328681863844395e-02</internalNodes>
          <leafValues>
            9.2592591047286987e-01 -3.2841327786445618e-01</leafValues></_>
        <_>
          <internalNodes>
            0 -1 2 -3.4208151698112488e-01</internalNodes>
          <leafValues>
            5.1552081108093262e-01 -4.2330670356750488e-01</leafValues></_>
        <_>
          <internalNodes>
            0 -1 16 -2.2110663354396820e-01</internalNodes>
          <leafValues>
            5.7991147041320801e-01 -3.6389935016632080e-01</leafValues></_>
        <_>
          <internalNodes>
            0 -1 33 1.0212742723524570e-02</internalNodes>
          <leafValues>
            -4.4486376643180847e-01 3.5231620073318481e-01</leafValues></_>
        <_>
          <internalNodes>
            0 -1 7 1.8227507825940847e-03</internalNodes>
          <leafValues>
            2.2039324045181274e-01 -7.1755433082580566e-01</leafValues></_>
        <_>
          <internalNodes>
            0 -1 5 2.5419588200747967e-04</internalNodes>
          <leafValues>
            -3.1446555256843567e-01 5.0183862447738647e-01</leafValues></_>
        <_>
          <internalNodes>
            0 -1 13 -4.1536781936883926e-03</internalNodes>
          <leafValues>
            2.2104035317897797e-01 -7.3561781644821167e-01</leafValues></_>
        <_>
          <internalNodes>
            0 -1 26 2.1982684731483459e-02</internalNodes>
          <leafValues>
            -2.8312319517135620e-01 6.9713854789733887e-01</leafValues></_></weakClassifiers></_>
    <!-- stage 6 -->
    <_>
      <maxWeakCount>8</maxWeakCount>
      <stageThreshold>-1.0071154832839966e+00</stageThreshold>
      <weakClassifiers>
        <_>
          <internalNodes>
            0 -1 9 4.7303944826126099e-02</internalNodes>
          <leafValues>
            -4.6478873491287231e-01 5.7768923044204712e-01</leafValues></_>
        <_>
          <internalNodes>
            0 -1 6 -2.5933748111128807e-04</internalNodes>
          <leafValues>
            4.4867986440658569e-01 -4.3543595075607300e-01</leafValues></_>
        <_>
          <internalNodes>
            0 -1 17 -5.0748824141919613e-03</internalNodes>
          <leafValues>
            3.7840673327445984e-01 -4.5971009135246277e-01</leafValues></_>
        <_>
          <internalNodes>
            0 -1 14 -2.2289283573627472e-02</internalNodes>
          <leafValues>
            3.5835540294647217e-01 -5.2140128612518311e-01</leafValues></_>
        <_>
          <internalNodes>
            0 -1 10 1.3389374362304807e-04</internalNodes>
          <leafValues>
            -4.9522206187248230e-01 4.4422709941864014e-01</leafValues></_>
        <_>
          <internalNodes>
            0 -1 31 -1.3829543604515493e-04</internalNodes>
          <leafValues>
            4.5627388358116150e-01 -4.2507112026214600e-01</leafValues></_>
        <_>
          <internalNodes>
            0 -1 29 5.7567398995161057e-02</internalNodes>
          <leafValues>
            -2.3966889083385468e-01 6.6107970476150513e-01</leafValues></_>
        <_>
          <internalNodes>
            0 -1 1 1.8311306834220886e-02</internalNodes>
          <leafValues>
            -6.8239700794219971e-01 3.1630915403366089e-01</leafValues></_></weakClassifiers></_></stages>
  <features>
    <_>
      <rects>
        <_>
          0 0 9 23 -1.</_>
        <_>
          3 0 3 23 3.</_></rects>
      <tilted>0</tilted></_>
    <_>
      <rects>
        <_>
          0 0 9 24 -1.</_>
        <_>
          3 0 3 24 3.</_></rects>
      <tilted>0</tilted></_>
    <_>
      <rects>
        <_>
          0 0 24 22 -1.</_>
        <_>
          8 0 8 22 3.</_></rects>
      <tilted>0</tilted></_>
    <_>
      <rects>
        <_>
          0 1 23 16 -1.</_>
        <_>
          0 9 23 8 2.</_></rects>
      <tilted>0</tilted></_>
    <_>
      <rects>
        <_>
          0 3 8 6 -1.</_>
        <_>
          0 3 4 3 2.</_>
        <_>
          4 6 4 3 2.</_></rects>
      <tilted>0</tilted></_>
    <_>
      <rects>
        <_>
          0 7 4 2 -1.</_>
        <_>
          0 7 2 1 2.</_>
        <_>
          2 8 2 1 2.</_></rects>
      <tilted>0</tilted></_>
    <_>
      <rects>
        <_>
          0 10 2 6 -1.</_>
        <_>
          0 10 1 3 2.</_>
        <_>
          1 13 1 3 2.</_></rects>
      <tilted>0</tilted></_>
    <_>
      <rects>
        <_>
          0 12 4 6 -1.</_>
        <_>
          2 12 2 6 2.</_></rects>
      <tilted>0</tilted></_>
    <_>
      <rects>
        <_>
          0 14 14 10 -1.</_>
        <_>
          0 14 7 5 2.</_>
        <_>
          7 19 7 5 2.</_></rects>
      <tilted>0</tilted></_>
    <_>
      <rects>
        <_>
          0 14 16 10 -1.</_>
        <_>
          0 14 8 5 2.</_>
        <_>
          8 19 8 5 2.</_></rects>
      <tilted>0</tilted></_>
    <_>
      <rects>
        <_>
          0 21 2 2 -1.</_>
        <_>
          1 21 1 2 2.</_></rects>
      <tilted>0</tilted></_>
    <_>
      <rects>
        <_>
          1 1 9 23 -1.</_>
        <_>
          4 1 3 23 3.</_></rects>
      <tilted>0</tilted></_>
    <_>
      <rects>
        <_>
          1 16 12 4 -1.</_>
        <_>
          7 16 6 4 2.</_></rects>
      <tilted>0</tilted></_>
    <_>
      <rects>
        <_>
          1 22 12 2 -1.</_>
        <_>
          7 22 6 2 2.</_></rects>
      <tilted>0</tilted></_>
    <_>
      <rects>
        <_>
          2 0 11 10 -1.</_>
        <_>
          2 5 11 5 2.</_></rects>
      <tilted>0</tilted></_>
    <_>
      <rects>
        <_>
          2 7 21 8 -1.</_>
        <_>
          9 7 7 8 3.</_></rects>
      <tilted>0</tilted></_>
    <_>
      <rects>
        <_>
          2 14 22 10 -1.</_>
        <_>
          13 14 11 10 2.</_></rects>
      <tilted>0</tilted></_>
    <_>
      <rects>
        <_>
          4 0 10 6 -1.</_>
        <_>
          4 0 5 3 2.</_>
        <_>
          9 3 5 3 2.</_></rects>
      <tilted>0</tilted></_>
    <_>
      <rects>
        <_>
          6 3 4 12 -1.</_>
        <_>
          6 9 4 6 2.</_></rects>
      <tilted>0</tilted></_>
    <_>
      <rects>
        <_>
          6 10 4 1 -1.</_>
        <_>
          8 10 2 1 2.</_></rects>
      <tilted>0</tilted></_>
    <_>
      <rects>
        <_>
          7 0 4 2 -1.</_>
        <_>
          7 0 2 1 2.</_>
        <_>
          9 1 2 1 2.</_></rects>
      <tilted>0</tilted></_>
    <_>
      <rects>
        <_>
          7 16 12 8 -1.</_>
        <_>
          7 16 6 4 2.</_>
        <_>
          13 20 6 4 2.</_></rects>
      <tilted>0</tilted></_>
    <_>
      <rects>
        <_>
          8 0 16 22 -1.</_>
        <_>
          8 11 16 11 2.</_></rects>
      <tilted>0</tilted></_>
    <_>
      <rects>
        <_>
          8 18 6 6 -1.</_>
        <_>
          11 18 3 6 2.</_></rects>
      <tilted>0</tilted></_>
    <_>
      <rects>
        <_>
          9 1 3 4 -1.</_>
        <_>
          9 3 3 2 2.</_></rects>
      <tilted>0</tilted></_>
    <_>
      <rects>
        <_>
          14 0 10 10 -1.</_>
        <_>
          14 0 5 5 2.</_>
        <_>
          19 5 5 5 2.</_></rects>
      <tilted>0</tilted></_>
    <_>
      <rects>
        <_>
          14 12 9 8 -1.</_>
        <_>
          17 12 3 8 3.</_></rects>
      <tilted>0</tilted></_>
    <_>
      <rects>
        <_>
          14 12 10 4 -1.</_>
        <_>
          14 14 10 2 2.</_></rects>
      <tilted>0</tilted></_>
    <_>
      <rects>
        <_>
          14 18 10 6 -1.</_>
        <_>
          14 18 5 3 2.</_>
        <_>
          19 21 5 3 2.</_></rects>
      <tilted>0</tilted></_>
    <_>
      <rects>
        <_>
          17 3 6 21 -1.</_>
        <_>
          20 3 3 21 2.</_></rects>
      <tilted>0</tilted></_>
    <_>
      <rects>
        <_>
          17 8 4 14 -1.</_>
        <_>
          19 8 2 14 2.</_></rects>
      <tilted>0</tilted></_>
    <_>
      <rects>
        <_>
          17 21 1 3 -1.</_>
        <_>
          17 22 1 1 3.</_></rects>
      <tilted>0</tilted></_>
    <_>
      <rects>
        <_>
          18 0 4 10 -1.</_>
        <_>
          18 0 2 5 2.</_>
        <_>
          20 5 2 5 2.</_></rects>
      <tilted>0</tilted></_>
    <_>
      <rects>
        <_>
          18 1 6 21 -1.</_>
        <_>
          20 1 2 21 3.</_></rects>
      <tilted>0</tilted></_>
    <_>
      <rects>
        <_>
          18 15 4 5 -1.</_>
        <_>
          20 15 2 5 2.</_></rects>
      <tilted>0</tilted></_>
    <_>
      <rects>
        <_>
          19 17 2 2 -1.</_>
        <_>
          19 17 1 1 2.</_>
        <_>
          20 18 1 1 2.</_></rects>
      <tilted>0</tilted></_>
    <_>
      <rects>
        <_>
          20 1 2 6 -1.</_>
        <_>
          20 1 1 3 2.</_>
        <_>
          21 4 1 3 2.</_></rects>
      <tilted>0</tilted></_>
    <_>
      <rects>
        <_>
          20 2 1 6 -1.</_>
        <_>
          20 5 1 3 2.</_></rects>
      <tilted>0</tilted></_>
    <_>
      <rects>
        <_>
          21 13 3 1 -1.</_>
        <_>
          22 13 1 1 3.</_></rects>
      <tilted>0</tilted></_>
    <_>
      <rects>
        <_>
          22 14 2 10 -1.</_>
        <_>
          23 14 1 10 2.</_></rects>
      <tilted>0</tilted></_></features></cascade>
</opencv_storage>
