<?xml version="1.0"?>
<opencv_storage>
<stage1>
  <maxWeakCount>5</maxWeakCount>
  <stageThreshold>-3.8526690006256104e-01</stageThreshold>
  <weakClassifiers>
    <_>
      <internalNodes>
        0 -1 237 2.6820018887519836e-02</internalNodes>
      <leafValues>
        -7.2297298908233643e-01 4.2257216572761536e-01</leafValues></_>
    <_>
      <internalNodes>
        0 -1 88946 -2.0248930901288986e-02</internalNodes>
      <leafValues>
        6.4400589466094971e-01 -4.7806459665298462e-01</leafValues></_>
    <_>
      <internalNodes>
        0 -1 150384 1.6528036445379257e-02</internalNodes>
      <leafValues>
        -3.6170029640197754e-01 8.7838262319564819e-01</leafValues></_>
    <_>
      <internalNodes>
        0 -1 157790 1.5418515540659428e-03</internalNodes>
      <leafValues>
        -3.6105787754058838e-01 8.3095932006835938e-01</leafValues></_>
    <_>
      <internalNodes>
        0 -1 24549 -1.3421563431620598e-02</internalNodes>
      <leafValues>
        4.6775078773498535e-01 -7.2908675670623779e-01</leafValues></_></weakClassifiers></stage1>
</opencv_storage>
