<?xml version="1.0"?>
<opencv_storage>
<stage5>
  <maxWeakCount>8</maxWeakCount>
  <stageThreshold>-9.1945827007293701e-01</stageThreshold>
  <weakClassifiers>
    <_>
      <internalNodes>
        0 -1 154803 -1.4328681863844395e-02</internalNodes>
      <leafValues>
        9.2592591047286987e-01 -3.2841327786445618e-01</leafValues></_>
    <_>
      <internalNodes>
        0 -1 635 -3.4208151698112488e-01</internalNodes>
      <leafValues>
        5.1552081108093262e-01 -4.2330670356750488e-01</leafValues></_>
    <_>
      <internalNodes>
        0 -1 36157 -2.2110663354396820e-01</internalNodes>
      <leafValues>
        5.7991147041320801e-01 -3.6389935016632080e-01</leafValues></_>
    <_>
      <internalNodes>
        0 -1 152305 1.0212742723524570e-02</internalNodes>
      <leafValues>
        -4.4486376643180847e-01 3.5231620073318481e-01</leafValues></_>
    <_>
      <internalNodes>
        0 -1 10072 1.8227507825940847e-03</internalNodes>
      <leafValues>
        2.2039324045181274e-01 -7.1755433082580566e-01</leafValues></_>
    <_>
      <internalNodes>
        0 -1 6719 2.5419588200747967e-04</internalNodes>
      <leafValues>
        -3.1446555256843567e-01 5.0183862447738647e-01</leafValues></_>
    <_>
      <internalNodes>
        0 -1 25750 -4.1536781936883926e-03</internalNodes>
      <leafValues>
        2.2104035317897797e-01 -7.3561781644821167e-01</leafValues></_>
    <_>
      <internalNodes>
        0 -1 137963 2.1982684731483459e-02</internalNodes>
      <leafValues>
        -2.8312319517135620e-01 6.9713854789733887e-01</leafValues></_></weakClassifiers></stage5>
</opencv_storage>
